19 200
</s> 0.002001 0.002210 -0.001915 -0.001639 0.000683 0.001511 0.000470 0.000106 -0.001802 0.001109 -0.002178 0.000625 -0.000376 -0.000479 -0.001658 -0.000941 0.001290 0.001513 0.001485 0.000799 0.000772 -0.001901 -0.002048 0.002485 0.001901 0.001545 -0.000302 0.002008 -0.000247 0.000367 -0.000075 -0.001492 0.000656 -0.000669 -0.001913 0.002377 0.002190 -0.000548 -0.000113 0.000255 -0.001819 -0.002004 0.002277 0.000032 -0.001291 -0.001521 -0.001538 0.000848 0.000101 0.000666 -0.002107 -0.001904 -0.000065 0.000572 0.001275 -0.001585 0.002040 0.000463 0.000560 -0.000304 0.001493 -0.001144 -0.001049 0.001079 -0.000377 0.000515 0.000902 -0.002044 -0.000992 0.001457 0.002116 0.001966 -0.001523 -0.001054 -0.000455 0.001001 -0.001894 0.001499 0.001394 -0.000799 -0.000776 -0.001119 0.002114 0.001956 -0.000590 0.002107 0.002410 0.000908 0.002491 -0.001556 -0.000766 -0.001054 -0.001454 0.001407 0.000790 0.000212 -0.001097 0.000762 0.001530 0.000097 0.001140 -0.002476 0.002157 0.000240 -0.000916 -0.001042 -0.000374 -0.001468 -0.002185 -0.001419 0.002139 -0.000885 -0.001340 0.001159 -0.000852 0.002378 -0.000802 -0.002294 0.001358 -0.000037 -0.001744 0.000488 0.000721 -0.000241 0.000912 -0.001979 0.000441 0.000908 -0.001505 0.000071 -0.000030 -0.001200 -0.001416 -0.002347 0.000011 0.000076 0.000005 -0.001967 -0.002481 -0.002373 -0.002163 -0.000274 0.000696 0.000592 -0.001591 0.002499 -0.001006 -0.000637 -0.000702 0.002366 -0.001882 0.000581 -0.000668 0.001594 0.000020 0.002135 -0.001410 -0.001303 -0.002096 -0.001833 -0.001600 -0.001557 0.001222 -0.000933 0.001340 0.001845 0.000678 0.001475 0.001238 0.001170 -0.001775 -0.001717 -0.001828 -0.000066 0.002065 -0.001368 -0.001530 -0.002098 0.001653 -0.002089 -0.000290 0.001089 -0.002309 -0.002239 0.000721 0.001762 0.002132 0.001073 0.001581 -0.001564 -0.001820 0.001987 -0.001382 0.000877 0.000287 0.000895 -0.000591 0.000099 -0.000843 -0.000563
的 0.209092 -0.165459 -0.058054 0.281176 0.102982 0.099868 0.047287 0.113531 0.202805 0.240482 0.026028 0.073504 0.010873 0.010201 -0.056060 -0.063864 -0.025928 -0.158832 -0.019444 -0.144610 -0.124821 0.000499 -0.050971 0.113983 0.088150 0.080318 -0.145976 0.093325 0.139695 -0.082682 -0.034356 0.061241 -0.090153 0.053166 -0.171991 -0.187834 0.115600 0.219545 -0.200234 -0.106904 0.033836 0.005707 0.484198 0.147382 -0.165274 0.094883 -0.202281 -0.638371 -0.127920 -0.212338 -0.250738 -0.022411 -0.315008 0.169237 -0.002799 0.019125 0.017462 0.028013 0.195060 0.036385 -0.051681 0.154037 0.214785 -0.179985 -0.020429 -0.044819 -0.074923 0.105441 -0.081715 -0.034099 -0.096518 -0.004290 0.095423 0.234515 -0.138332 0.134917 0.082070 0.051714 0.159327 0.061818 0.037091 0.239265 0.073274 0.170960 0.223636 -0.187691 -0.206850 -0.051000 -0.269477 -0.116970 0.213069 -0.096122 0.035362 -0.254648 0.021978 0.071687 0.109870 -0.104643 -0.175653 0.097061 -0.068692 0.196374 0.007704 0.072367 -0.275905 0.217282 -0.056664 -0.321484 -0.004813 -0.041167 -0.118400 -0.159937 0.065294 -0.092538 0.013975 -0.219047 -0.058431 -0.177256 -0.043169 -0.151647 -0.006049 -0.279595 -0.005488 0.096733 0.147219 0.197677 -0.088133 0.053465 0.038738 0.059665 -0.132819 0.019606 0.224926 -0.176136 -0.411968 -0.044071 -0.120198 -0.107929 -0.001640 0.036719 -0.243131 -0.273457 -0.317418 -0.079236 0.054842 -0.143945 0.168189 -0.013057 -0.145664 0.135278 0.029447 -0.141014 -0.183899 -0.080112 -0.113538 0.071163 0.134968 0.141939 0.144405 -0.249114 0.454654 -0.077072 -0.001521 0.298252 0.160275 0.085942 -0.213363 0.083022 -0.000400 0.134826 -0.000681 -0.017328 -0.026751 0.111903 0.010307 -0.124723 0.031472 0.081697 0.071449 0.011486 -0.091571 -0.039319 -0.112756 0.171106 0.026869 -0.077058 -0.052948 0.252645 -0.035071 0.040870 0.277828 0.085193 0.006959 -0.048913 0.279133 0.169515 0.068156 -0.278624 -0.173408 0.035439
。 0.128825 -0.267995 0.000795 0.263639 0.097538 0.010807 -0.028897 0.117577 0.156264 0.188688 0.039535 0.003052 -0.006556 -0.000542 -0.029001 -0.077706 -0.032283 -0.143411 -0.077546 -0.190037 -0.133469 -0.022468 -0.072961 0.144973 0.098850 0.084037 -0.190143 0.088755 0.138181 -0.105819 0.017681 0.097694 -0.041753 0.067210 -0.168004 -0.220518 0.109195 0.213823 -0.257998 -0.077525 0.020666 0.093258 0.479364 0.118419 -0.075531 0.027833 -0.218220 -0.606599 -0.070421 -0.199476 -0.233392 0.043417 -0.329303 0.209230 0.076914 -0.104362 0.062803 0.135248 0.140913 0.004518 0.025996 0.098697 0.151008 -0.097791 -0.107083 0.031974 -0.128378 0.083871 -0.084132 -0.081561 -0.130019 -0.000076 0.044137 0.141331 -0.015837 0.040789 0.059898 0.090438 0.109648 0.057426 0.018093 0.301312 0.052632 0.235123 0.242908 -0.095973 -0.095958 0.030708 -0.384714 -0.164777 0.173542 -0.068162 0.008059 -0.271924 0.051049 0.104490 0.010147 -0.105521 -0.127305 0.166114 -0.088172 0.226118 0.063335 0.109702 -0.240658 0.222202 0.038648 -0.355815 -0.015869 -0.118660 -0.072290 -0.113268 0.022802 -0.181717 0.042459 -0.112042 -0.146667 -0.162785 -0.164891 -0.124024 0.114017 -0.279552 0.043898 0.119786 0.074259 0.180340 -0.151963 0.054344 0.062367 0.081112 -0.201022 0.007162 0.285948 -0.080341 -0.373533 0.010599 -0.068789 -0.048280 0.024877 -0.023046 -0.260779 -0.348213 -0.316790 0.094536 0.131866 -0.186581 0.250213 0.002131 -0.133212 0.041250 -0.022561 -0.120896 -0.115173 -0.136738 -0.106566 -0.004902 0.111645 0.065397 0.250295 -0.107772 0.364187 0.091516 0.020277 0.247552 0.125857 0.037309 -0.204360 0.228403 0.029138 0.095838 -0.000847 0.018618 -0.083734 0.204566 -0.044542 -0.150615 -0.023076 -0.048712 0.146612 0.015543 -0.081624 0.049204 -0.175686 0.155870 0.020196 -0.102833 -0.046915 0.256491 -0.039505 0.110278 0.273165 0.062938 0.050126 -0.091656 0.221263 0.245667 0.096496 -0.286896 -0.273779 0.031194
, -0.098885 -0.335186 -0.092543 0.145954 0.062586 -0.031792 0.002963 0.095666 0.136642 0.228925 0.290372 0.031822 0.079649 0.004957 0.186027 -0.120654 -0.085876 -0.038904 -0.188163 -0.049018 -0.031889 -0.076527 -0.044837 0.179972 0.280003 -0.025408 -0.129556 0.204244 0.135897 0.040038 0.066776 0.229703 -0.005452 0.053202 -0.078578 -0.360414 0.217936 -0.122313 -0.097521 -0.371549 -0.126917 0.004912 0.572844 0.188218 0.075694 -0.068327 -0.113156 -0.520387 -0.015882 -0.063246 -0.297707 0.082145 -0.346270 0.305896 0.284688 -0.153902 0.063972 0.165861 0.052901 -0.124356 -0.022029 0.037506 -0.072065 -0.150246 -0.155110 -0.048658 -0.146387 0.076884 -0.191979 0.057570 -0.046671 0.100186 0.082296 0.329750 0.002845 0.143715 0.133200 0.173783 -0.008137 -0.027748 0.037880 0.351362 0.104906 0.196654 0.344083 -0.166356 0.093684 0.067884 -0.388054 -0.158803 0.189325 0.120307 -0.104332 -0.338101 0.059107 0.086494 -0.146971 -0.134498 -0.158104 0.193087 -0.149227 0.301898 0.039827 0.119830 -0.138713 0.048479 0.366490 -0.550691 0.030574 -0.211866 -0.015142 -0.217475 -0.082156 -0.169474 -0.026249 -0.139175 -0.068187 -0.220310 -0.305426 -0.120390 0.139736 -0.337384 0.066118 0.054236 0.126146 0.276481 -0.220184 0.035463 0.144391 0.097852 -0.075931 0.104917 0.396221 -0.025875 -0.320798 -0.042056 0.008985 -0.151966 -0.155902 -0.251964 -0.229793 -0.382696 -0.311796 0.126690 0.180148 -0.149632 0.153048 0.037665 -0.118928 0.090724 -0.031901 -0.138475 -0.087738 -0.117940 -0.139657 -0.026110 -0.047370 -0.088814 0.213824 0.125929 0.400300 0.213129 -0.108517 0.283643 0.068651 -0.031996 -0.250347 0.226049 0.175005 -0.007276 0.006655 0.053348 0.013796 0.198805 -0.052261 0.014431 -0.013838 -0.162294 0.111247 0.078699 0.000247 0.017076 -0.150237 0.071130 0.070735 0.024919 -0.139731 0.063105 -0.061940 0.165181 0.221614 0.173825 0.088357 -0.119238 0.135927 0.480134 0.144222 -0.322631 -0.299947 0.179642
了 0.257969 -0.288066 0.105582 0.281781 0.262464 0.024700 0.201691 0.005893 0.189025 0.123702 0.000702 -0.024353 0.074768 -0.120963 0.053227 -0.115575 -0.004054 -0.215095 -0.157094 -0.259438 0.062279 0.142544 -0.057884 0.149006 0.142659 -0.055425 -0.023676 0.048273 0.274754 -0.119763 -0.068765 0.031547 -0.045737 0.171814 -0.255463 -0.086406 0.171091 0.073908 -0.288000 0.051408 0.014997 0.005331 0.401295 0.095939 -0.045079 0.089809 -0.274839 -0.682658 -0.140976 -0.104340 -0.260310 0.023253 -0.258755 0.066476 -0.121786 0.001883 0.101805 0.168083 0.184144 0.069670 0.060302 0.190894 0.035508 0.005831 -0.160862 -0.194421 0.027660 -0.004459 -0.094092 -0.127693 -0.151391 0.004516 0.176035 0.156662 -0.035896 0.040939 0.056237 0.105161 0.208659 -0.029048 0.050157 0.265578 0.121959 0.337101 0.153380 -0.229313 -0.225776 0.144097 -0.110946 -0.118999 0.063307 0.043647 0.038288 -0.268226 -0.166147 0.131352 0.087143 -0.138708 -0.125388 0.124644 -0.029785 0.235381 -0.140240 -0.022642 -0.285102 0.207541 -0.066322 -0.421221 -0.050854 -0.180806 0.063572 -0.221671 0.144535 -0.106335 0.039128 -0.323642 0.136248 -0.268427 -0.005231 0.022319 0.100253 -0.346457 -0.058811 -0.041238 0.045793 0.122920 -0.153493 0.146689 0.018370 0.121537 -0.134108 -0.041995 0.198174 -0.130834 -0.339254 0.032741 -0.095624 0.119803 0.061630 0.166394 -0.330792 -0.224072 -0.270991 0.125234 -0.057835 -0.233979 0.228011 0.050660 -0.160570 0.180151 -0.083350 -0.156653 -0.135692 -0.145908 -0.096677 -0.066022 0.088564 -0.045435 0.054121 -0.357914 0.448524 0.141443 -0.094841 0.212140 0.053208 0.114341 -0.139839 0.239768 0.095185 0.049941 -0.141136 -0.093853 -0.107702 0.065235 -0.007106 -0.292004 0.048486 -0.063324 0.033387 0.068469 -0.210287 -0.039360 -0.273291 0.143838 -0.105371 -0.155323 -0.020802 0.499330 -0.100334 -0.001517 0.252245 0.093027 0.057058 0.062758 0.277739 0.240228 0.184851 -0.348845 -0.224438 0.065580
、 -0.232738 -0.288685 -0.112967 0.243445 0.063453 -0.011561 -0.008042 0.278480 0.095796 0.181892 -0.057935 0.079951 0.125428 0.016825 -0.255156 -0.064579 0.250334 -0.001956 0.027310 -0.044554 -0.371264 0.083583 -0.022147 -0.058193 0.087624 0.092437 -0.065254 0.195590 0.049069 -0.050154 0.115945 0.059864 0.195945 0.415346 -0.115533 -0.351305 0.211141 0.419050 -0.011927 -0.133281 0.154127 0.120905 0.361275 0.238737 0.020675 0.248509 -0.457214 -0.695160 0.073428 -0.235259 -0.171847 -0.067426 -0.322873 0.045355 0.003495 -0.035630 0.083483 0.139785 0.396549 -0.317331 0.075060 -0.115931 0.259889 -0.215689 -0.269958 -0.119417 -0.129016 -0.055042 -0.134885 0.205673 0.098041 0.017878 0.349834 0.326317 -0.190929 -0.027716 0.186459 0.112990 -0.105028 -0.338298 -0.033512 0.362206 0.131871 0.267529 0.199675 -0.083040 0.178176 -0.017078 -0.048815 -0.264116 0.308941 -0.101069 -0.033861 -0.300839 -0.038865 0.123880 0.077158 -0.102373 -0.234012 0.206596 -0.271171 0.355674 0.226836 0.271766 -0.140208 0.333076 0.049434 -0.232454 -0.198579 -0.282786 0.146072 -0.181280 0.052588 -0.238193 -0.264306 -0.197291 -0.121021 -0.019134 -0.134523 0.124645 0.063116 -0.529543 0.276034 0.221463 0.129541 0.249353 -0.156155 0.058278 0.134928 -0.089215 -0.135324 0.178495 0.467898 -0.105199 -0.421901 0.065678 0.164576 -0.115533 -0.122835 -0.313874 -0.112314 -0.434833 -0.407134 -0.158788 -0.045447 0.226856 0.589111 -0.189425 -0.186958 -0.056326 0.001208 -0.191341 -0.082234 0.077402 -0.200340 0.196309 -0.052946 -0.028392 0.425342 0.082913 0.513461 -0.038077 -0.002634 0.191342 0.266861 0.092981 -0.107972 0.214609 -0.247476 -0.031515 0.036883 0.108790 -0.013948 -0.064460 -0.093925 -0.234909 -0.289582 -0.107822 0.319905 -0.051341 -0.303210 0.078185 0.073010 0.140941 0.177822 0.158210 0.134216 0.113107 0.010003 -0.131399 0.231865 0.280990 0.148913 -0.318607 -0.000751 0.380837 -0.014786 0.199341 -0.243304 0.048623
“ 0.122462 -0.236367 0.083894 0.054253 0.076510 0.101018 -0.157237 0.032625 0.010705 0.285742 0.108899 -0.089643 0.093323 -0.072528 0.173572 0.032265 -0.144413 -0.382213 -0.127190 -0.104082 -0.112731 -0.019033 -0.153905 0.057671 0.141809 0.141354 -0.099416 0.046555 0.015345 -0.005729 -0.086419 0.047950 0.022829 0.175444 -0.244222 -0.108688 0.008861 0.206845 -0.368806 -0.191608 0.015095 0.131515 0.356959 0.152526 -0.127977 0.035397 -0.333871 -0.444046 -0.084535 -0.072250 -0.184907 0.261136 -0.224213 0.023162 0.042897 0.007341 0.218563 0.251269 0.068582 0.004821 0.049429 0.211055 0.167730 -0.103785 0.165069 0.176739 0.032481 -0.120746 -0.069707 -0.136771 -0.080435 0.045660 0.316021 0.011224 0.111150 0.097139 -0.042860 0.215534 0.075728 0.158713 0.133570 0.407183 0.081891 0.175441 -0.023760 -0.047137 -0.011409 0.098810 -0.290375 -0.232262 0.156042 -0.249738 0.054919 -0.149459 0.122781 -0.075528 0.044226 -0.070409 -0.180491 0.041084 -0.058707 0.266652 -0.023937 0.251588 -0.414041 0.582360 0.059408 -0.595803 -0.177864 -0.080663 0.086218 -0.240464 0.239131 0.034891 0.117690 -0.200251 -0.004631 -0.234003 -0.200123 0.003599 0.233423 -0.207720 -0.041890 0.002190 -0.123027 -0.018789 -0.022032 -0.012981 0.060304 0.168908 -0.179670 -0.056837 0.255375 -0.233489 -0.502085 -0.165754 0.002228 -0.057791 0.026687 -0.165600 -0.197780 -0.270278 -0.211250 0.030570 0.123118 -0.271800 0.122304 0.059079 -0.165242 0.095742 -0.247362 -0.288905 -0.059444 -0.239531 -0.227575 -0.004750 0.154330 0.027113 0.078265 -0.248037 0.560899 -0.039299 0.147028 0.121306 0.100932 0.055226 -0.186161 0.149411 0.092626 0.060446 0.175370 -0.078933 -0.060286 0.281467 0.068393 -0.075060 -0.251365 -0.156435 0.082520 0.124177 -0.067274 0.136409 -0.135146 0.263874 0.070770 0.162158 -0.077261 0.308476 -0.091539 0.126403 0.067644 0.045887 0.147458 -0.117867 0.019049 0.425965 -0.014370 -0.253605 -0.113628 0.106659
” 0.108815 -0.241997 0.082369 0.063541 0.054383 0.123942 -0.167157 0.021991 0.031640 0.262305 0.131012 -0.083021 0.101425 -0.081870 0.159832 0.031488 -0.146121 -0.333952 -0.129508 -0.088991 -0.127734 -0.016296 -0.123858 0.061714 0.168111 0.115000 -0.077976 0.069735 0.043334 0.015265 -0.077503 0.059783 0.031921 0.138752 -0.256197 -0.167446 0.026034 0.181538 -0.369619 -0.187011 0.021129 0.115088 0.349497 0.162885 -0.120980 0.045805 -0.316720 -0.443893 -0.106555 -0.111270 -0.191840 0.228302 -0.257261 -0.012916 0.041418 -0.002460 0.224961 0.247112 0.084027 -0.009874 0.085379 0.192162 0.158371 -0.088699 0.148566 0.190253 0.024584 -0.098989 -0.072661 -0.133928 -0.065171 0.092618 0.285007 0.005544 0.104271 0.101575 -0.028191 0.199444 0.093800 0.179894 0.099258 0.411289 0.070870 0.171074 -0.009207 -0.035159 0.007757 0.116820 -0.299558 -0.212453 0.163653 -0.264225 0.037925 -0.155702 0.136437 -0.081984 0.046029 -0.056247 -0.187565 0.011201 -0.033462 0.267564 -0.028860 0.261291 -0.414885 0.583737 0.028150 -0.585286 -0.182570 -0.070103 0.096262 -0.212538 0.215521 -0.006936 0.079491 -0.194930 -0.012284 -0.200511 -0.196653 -0.007712 0.216313 -0.186542 -0.058861 -0.012272 -0.109852 0.005773 -0.020779 -0.012360 0.084804 0.136474 -0.159033 -0.031105 0.239932 -0.207597 -0.489428 -0.131963 -0.018079 -0.076020 0.030093 -0.139627 -0.232451 -0.261891 -0.218330 0.063110 0.140156 -0.264597 0.113596 0.087695 -0.177811 0.114217 -0.241231 -0.294800 -0.062543 -0.245346 -0.239901 -0.009816 0.146287 -0.003436 0.116481 -0.240626 0.532931 -0.006128 0.155324 0.132983 0.096058 0.062446 -0.207618 0.135445 0.088684 0.039472 0.151041 -0.089525 -0.082138 0.249260 0.088288 -0.091733 -0.241065 -0.175282 0.072563 0.103602 -0.051329 0.105472 -0.143385 0.267700 0.075299 0.177726 -0.072988 0.288345 -0.078596 0.132786 0.073861 0.051939 0.150097 -0.122646 0.033182 0.424073 0.021534 -0.266058 -0.147493 0.129246
是 0.088422 -0.220535 0.042321 0.280248 0.158567 0.022675 0.104318 0.164016 0.175014 0.483962 0.128477 0.111126 0.031500 -0.000157 -0.097737 0.247697 -0.179488 -0.240289 -0.136103 -0.168298 -0.147298 0.021108 0.120252 0.076418 0.274915 0.074118 -0.109737 0.132861 0.303832 0.025579 -0.001565 0.046626 -0.174546 0.069820 -0.233192 -0.319214 0.102713 0.376593 -0.278854 -0.190161 0.064110 0.152048 0.481907 0.112520 -0.237646 0.036225 -0.054809 -0.675327 -0.004792 -0.201795 -0.314029 -0.002380 -0.308852 0.154706 -0.015906 -0.025239 -0.115753 0.012128 0.177280 0.193762 0.064173 0.136234 0.119523 -0.144031 0.001965 -0.019349 -0.090950 0.130274 -0.212409 -0.300901 -0.271812 0.048882 0.046211 0.264830 -0.007732 0.212248 0.170197 -0.036245 0.126349 0.037053 0.014784 0.282051 0.090078 0.191075 0.188490 -0.240984 0.005043 -0.012079 -0.339504 -0.255159 0.253130 -0.122627 0.070942 -0.228254 0.148199 0.088679 -0.028714 -0.072517 -0.252825 0.140066 0.037613 0.168659 0.053629 0.064994 -0.262946 0.252412 -0.095863 -0.409000 0.020319 -0.120344 -0.248578 -0.148610 0.120841 -0.206529 0.099486 -0.144703 0.096828 -0.118727 -0.185494 -0.068001 -0.054437 -0.155130 -0.012420 0.233209 0.015379 0.168919 -0.135505 0.030401 -0.111819 -0.008094 -0.198661 -0.005637 0.229044 -0.131276 -0.294233 0.013832 -0.035503 -0.125856 -0.158669 -0.120601 -0.322779 -0.117246 -0.162126 -0.140845 0.118956 -0.244393 0.266027 -0.039224 -0.294961 0.162399 -0.046758 -0.109945 -0.273991 -0.052170 -0.081680 0.060395 0.223162 0.063811 0.086414 -0.239465 0.311980 -0.043291 -0.100374 0.136088 0.180767 -0.064107 -0.222279 0.027649 -0.062463 0.141550 -0.009524 -0.122633 0.078290 0.118104 0.068727 -0.020049 -0.064007 0.141176 0.123716 -0.040491 -0.147908 -0.171939 0.018413 0.055367 0.191712 0.042501 -0.071932 0.301518 -0.111157 0.064090 0.038439 0.139372 0.075114 -0.148898 0.236133 0.344508 0.014930 -0.195834 -0.292445 0.097225
在 0.140179 -0.210529 0.084447 0.408465 0.211370 0.029728 0.185457 0.181734 0.180533 0.366577 -0.123496 0.005413 -0.109705 -0.035757 0.076673 -0.203110 0.028695 -0.183482 -0.134198 -0.246188 -0.135944 0.114651 -0.277289 0.061838 0.051108 0.074963 -0.213490 -0.094795 -0.005998 -0.167743 0.078747 0.114884 0.029258 0.085330 -0.252696 -0.313948 0.197135 0.314020 -0.337170 -0.186204 -0.098521 -0.116725 0.555076 0.058195 -0.224802 0.024302 -0.277476 -0.622087 0.111211 -0.050457 -0.292735 -0.102340 -0.379862 -0.043842 0.088253 0.024119 -0.027338 0.213561 0.141122 0.040768 0.008594 0.186239 0.183856 -0.214558 -0.085280 -0.261180 -0.006649 -0.079213 -0.177823 -0.058194 -0.072030 -0.083107 0.180827 0.277204 -0.175215 0.034765 0.087632 -0.010528 0.241199 -0.010193 0.034417 0.167437 -0.021327 0.329826 0.052269 -0.025625 -0.287787 0.030960 -0.424025 -0.036330 0.212826 -0.103781 0.111133 -0.200861 0.193314 -0.028584 0.127177 -0.101817 -0.224835 0.206509 0.067936 0.336232 0.122407 -0.029962 -0.129869 0.133404 0.015009 -0.433207 0.058028 0.150409 -0.104637 -0.249578 -0.019712 -0.147257 0.156090 -0.329590 -0.044553 -0.159814 -0.202431 -0.105977 -0.080457 -0.335018 0.329008 -0.001287 0.030630 0.071126 -0.145978 -0.037959 -0.008835 0.048876 -0.244987 0.030354 0.176110 -0.160886 -0.201701 -0.088635 -0.097368 -0.153500 -0.033835 0.004843 -0.127706 -0.292187 -0.244355 -0.063014 0.209098 -0.161995 0.167322 0.163574 -0.097362 0.162335 -0.016799 0.016638 -0.139538 -0.093002 -0.159434 -0.049299 0.114523 0.018487 0.094815 -0.165554 0.416426 0.035351 0.045484 0.188833 0.278961 -0.101411 -0.275655 0.077192 -0.086545 0.134090 0.020310 -0.058140 -0.039572 0.139488 -0.011555 -0.085959 0.022064 0.052370 0.013617 -0.065007 -0.101952 0.003111 -0.258395 0.261667 0.192007 -0.153767 -0.079217 0.393653 -0.131986 0.165527 0.314349 0.122465 0.110945 0.182450 0.239579 0.235608 -0.010840 -0.340614 -0.124820 -0.001334
？ 0.402922 -0.300508 -0.353942 0.112653 0.106601 -0.113353 0.082613 0.140171 0.112817 0.247855 0.077707 -0.051344 0.191453 -0.080087 0.124636 0.000118 -0.109630 -0.262693 -0.150456 -0.096247 0.103140 0.295963 0.239890 -0.062971 0.094243 -0.103382 -0.310787 0.093597 0.239786 -0.026846 0.174998 0.015196 -0.042887 0.130396 -0.090268 -0.112404 0.042893 0.156469 -0.251244 -0.130730 0.056426 -0.088129 0.377345 0.284700 -0.176186 -0.033252 -0.100528 -0.658676 0.026004 0.040914 -0.207758 0.151818 -0.292712 0.050614 0.044119 0.010531 0.066009 0.186347 0.163012 0.108013 -0.000256 0.209191 -0.044877 -0.120906 0.091355 0.108375 0.174959 -0.020022 -0.003670 -0.160715 -0.279859 0.300516 0.064206 0.033851 0.165611 0.133947 -0.106854 0.096214 0.009227 -0.067202 0.192426 0.326639 0.171306 -0.134810 0.253989 -0.027107 0.067293 0.259604 -0.194291 -0.456792 0.251872 0.157815 -0.126003 -0.088442 0.071875 0.042677 0.054773 0.083258 -0.030296 0.151838 -0.057992 0.332845 -0.084175 0.195955 -0.319044 0.007457 -0.025835 -0.509900 -0.053721 0.017068 0.068113 -0.193660 -0.051365 0.099476 0.033704 -0.041025 -0.028699 -0.098496 -0.124037 -0.158158 0.436960 -0.350214 -0.012871 0.152676 -0.109028 0.169616 -0.127501 -0.109711 -0.002107 0.069823 -0.095907 0.139707 0.313531 -0.222055 -0.404225 0.004465 -0.197435 -0.189451 -0.090847 -0.040948 -0.254023 -0.296257 -0.059357 0.072567 0.161884 -0.328729 0.060148 0.026202 -0.004577 0.197899 -0.140176 -0.074980 -0.182574 -0.150788 -0.240934 0.006282 0.305283 0.082026 0.061774 -0.010853 0.364478 -0.102789 -0.092926 0.299877 0.139272 0.088865 -0.072618 0.221269 0.154715 -0.013570 0.006617 -0.082761 -0.002638 0.129394 0.075715 0.048324 -0.314485 -0.025888 0.139623 0.233152 0.067561 -0.178941 -0.075628 0.105439 0.111848 0.085033 -0.506806 0.025351 0.107564 0.208671 0.010176 0.097986 -0.227650 -0.250924 0.242192 0.433201 -0.174784 -0.609198 -0.234915 0.354191
！ 0.124369 -0.549265 -0.151302 0.267781 0.088999 -0.134536 0.036340 0.027784 0.123388 0.310345 0.250375 0.108034 0.012139 -0.109423 0.020953 -0.012851 -0.173615 -0.159119 -0.340249 -0.142898 0.054856 0.053153 0.175021 0.173003 0.336459 -0.327204 -0.082117 0.128418 0.242180 0.068666 -0.067794 0.029074 0.124266 0.314637 -0.167560 -0.099967 0.169998 0.115718 -0.137968 -0.384795 0.009330 0.040575 0.306893 0.190377 0.054860 -0.046958 -0.162022 -0.556468 -0.143647 -0.138291 -0.332283 0.128227 -0.362517 0.109860 0.208563 0.049215 0.078076 0.069577 0.045217 -0.088815 -0.039350 0.180478 -0.125399 -0.250437 0.037908 0.044711 0.169464 0.261112 -0.044192 -0.068611 -0.140744 0.101518 -0.000311 0.132056 0.042085 0.258206 -0.035954 0.087460 0.111901 0.023071 0.203678 0.508983 0.004870 0.212649 0.268605 -0.096171 -0.190733 0.269282 -0.143558 -0.257810 0.150176 -0.095797 -0.099321 -0.174600 0.057483 0.149413 -0.049407 -0.024433 -0.088270 0.211521 0.127492 0.194015 -0.115320 0.044003 -0.260578 0.168733 0.161235 -0.395774 0.026891 -0.122110 0.087178 -0.143534 0.110126 -0.070308 0.097872 -0.062732 -0.093058 -0.141587 -0.009506 -0.298059 0.150947 -0.059607 0.010907 -0.117063 0.096049 0.270224 -0.116279 -0.130826 0.110457 -0.048219 -0.016422 0.156546 0.219094 -0.149744 -0.254423 0.091045 -0.232259 -0.033408 0.007809 -0.072161 -0.359112 -0.301161 -0.056079 0.098333 0.167429 -0.423576 0.231229 -0.255908 -0.175293 0.041098 -0.127745 -0.160837 -0.245629 -0.308655 -0.093240 0.076763 0.120664 -0.211603 0.249339 -0.181416 0.454499 0.113244 -0.031488 0.248592 0.145937 0.158047 -0.197093 0.202545 0.148626 0.041890 0.100113 -0.088194 -0.057444 0.174603 0.051039 -0.026705 -0.117034 -0.212510 0.112093 0.173501 0.119549 0.043481 -0.283562 0.164639 -0.058210 0.016423 -0.112946 0.079238 0.127689 0.064587 0.057838 0.291111 0.008003 -0.293634 0.268223 0.449733 0.191095 -0.387032 -0.197244 0.092638
和 0.059005 -0.159257 -0.070609 0.333957 0.172421 0.079540 0.099425 0.248545 0.216435 0.302788 0.038808 0.000471 0.162667 0.020548 -0.210589 -0.088976 0.170685 -0.153639 -0.118756 -0.075105 -0.089003 0.063505 0.040784 0.069238 0.082064 0.065956 -0.140206 0.082242 0.090268 -0.078615 0.068675 0.063937 0.044738 0.294580 -0.234651 -0.296382 0.217686 0.195495 -0.110561 -0.050931 0.024866 0.042180 0.602511 0.310658 -0.116684 0.120940 -0.239425 -0.726953 -0.059974 -0.299482 -0.259069 -0.190446 -0.317092 0.223928 -0.037882 -0.043169 -0.085250 0.100996 0.153228 -0.038039 0.085719 0.009228 0.351343 -0.203530 -0.167267 -0.122166 -0.056232 0.056485 -0.010745 0.166608 -0.030105 0.063840 0.176671 0.228635 -0.234507 0.088497 0.174012 0.086832 0.222711 -0.027464 -0.028850 0.185663 0.137183 0.156418 0.267754 -0.139307 -0.193774 -0.156766 -0.200128 -0.115157 0.184654 -0.181376 -0.067515 -0.226574 -0.052258 0.172272 0.167531 -0.100539 -0.170459 0.135723 -0.138390 0.204449 0.046908 0.038854 -0.323665 0.256273 -0.071703 -0.329932 0.074816 0.040218 0.021916 -0.240498 0.067538 -0.152129 0.032088 -0.172360 -0.057051 -0.082615 -0.100869 -0.041631 0.059795 -0.300159 -0.026411 0.248167 0.103293 0.241828 -0.111614 0.107571 0.051794 0.008955 -0.150007 0.133801 0.231765 -0.207193 -0.574553 -0.120284 0.131662 -0.017111 -0.066753 -0.015525 -0.288665 -0.339207 -0.406911 -0.139784 -0.056450 -0.009503 0.345818 -0.088575 -0.172899 0.066896 0.090306 -0.272641 -0.150629 -0.032163 -0.134250 0.071467 0.180225 0.079514 0.117027 -0.141175 0.463937 -0.099354 0.100078 0.183016 0.115633 0.021128 -0.216588 0.146609 -0.030044 0.055624 0.015059 0.014040 -0.008113 0.098992 -0.113448 -0.217462 -0.066343 0.027895 0.202825 -0.047092 -0.182861 -0.026904 -0.062557 0.100181 0.225309 -0.088307 0.049167 0.316570 -0.057882 -0.113853 0.320681 0.121713 0.013660 -0.040932 0.245229 0.141616 0.034817 0.028271 -0.165082 0.022234
： 0.006303 -0.388016 -0.073327 0.108220 0.160198 -0.113129 -0.051267 0.186036 -0.185554 0.192239 0.184024 0.034465 -0.024586 0.010771 0.004976 -0.041268 0.004391 -0.079133 -0.106404 -0.077540 -0.159464 0.034528 0.082939 0.100988 0.252564 0.014664 -0.196106 -0.054730 0.065632 0.044972 0.126666 0.192913 0.085700 -0.014229 -0.090390 -0.182508 0.019400 0.207061 -0.011482 -0.377915 -0.054408 0.094802 0.544636 0.152294 -0.088501 -0.049002 -0.097327 -0.629594 0.042630 -0.081439 -0.337710 0.300773 -0.265140 0.396218 0.193481 -0.119095 0.196204 0.175908 -0.120462 -0.088397 -0.161182 0.077835 -0.011888 -0.217699 -0.292900 0.072887 0.048675 0.100598 -0.155003 0.119669 -0.068630 -0.080899 0.178044 0.311590 0.063048 0.030729 -0.037070 0.119667 0.113126 -0.172650 0.045449 0.349563 0.193085 0.170465 0.199164 -0.200204 0.250466 0.143508 -0.376387 -0.362614 0.255797 -0.059075 -0.031085 -0.323200 0.078279 0.129033 -0.189877 -0.072928 -0.120018 0.329221 0.051300 0.213623 0.018373 0.153012 -0.238358 0.167400 0.158151 -0.597061 0.044364 -0.459728 -0.000826 -0.162481 -0.099779 0.098496 0.276636 0.015137 -0.125316 -0.268867 -0.184830 -0.226645 0.144145 -0.587551 0.329658 0.188120 -0.040988 0.387925 -0.371076 -0.019412 0.234446 0.181315 -0.244543 0.093094 0.644700 -0.224007 -0.347787 0.079602 0.137514 -0.053223 -0.089924 -0.444568 -0.124955 -0.395210 -0.116903 0.119254 0.151184 -0.321700 0.299857 -0.195686 -0.020262 0.021362 -0.048288 -0.074419 0.042465 -0.128028 -0.259132 -0.097324 0.049519 -0.118997 0.316396 -0.004085 0.472153 0.056483 -0.018858 0.213877 0.178515 0.087898 -0.259235 0.242683 0.111557 -0.137895 0.162819 -0.084790 0.119636 0.273813 -0.108268 -0.091388 -0.339873 -0.170652 0.187064 0.091054 -0.156702 0.173952 -0.058498 0.008290 0.100534 0.049813 -0.050338 0.138359 0.075123 0.227713 0.138652 0.049667 0.180058 -0.157768 0.099676 0.521930 -0.142704 -0.223926 -0.194171 0.137376
我 0.250116 -0.366958 0.065014 0.010725 0.231398 -0.177817 0.064359 -0.005259 0.115888 0.154000 0.171935 0.072470 -0.003175 -0.092480 0.202760 -0.030792 -0.306991 -0.289693 -0.055264 -0.189153 0.122888 0.081699 0.017909 0.158469 0.147464 0.079238 -0.224966 0.145837 0.182973 -0.149864 -0.156044 0.044855 -0.237059 0.174146 -0.108293 -0.066462 0.140773 0.092687 -0.124868 -0.026098 0.167881 -0.117048 0.390750 -0.036812 -0.051702 -0.161367 -0.355791 -0.311515 -0.090306 0.084679 -0.184472 0.090339 -0.098312 0.256595 0.292554 0.274648 0.039325 0.150774 0.239049 -0.011787 -0.014104 0.135062 0.151537 -0.208729 -0.171538 0.080030 -0.116087 0.159768 -0.061878 -0.149166 -0.065586 0.029528 -0.020271 0.098718 -0.068513 0.238489 0.174631 -0.003655 0.161002 -0.002617 0.202535 0.276254 0.039330 0.008368 0.258403 -0.254685 -0.046402 0.415975 -0.369803 -0.070436 0.165418 0.167119 0.047878 0.105566 -0.127156 0.189587 -0.022974 -0.210112 -0.297339 0.071683 -0.111609 0.265368 -0.108999 0.247901 -0.434307 0.216444 0.033944 -0.551442 -0.072594 0.009830 -0.028967 -0.181977 -0.032623 -0.179671 0.128933 -0.087196 0.120340 -0.221466 -0.200841 -0.218873 0.277069 -0.366933 0.003879 -0.027925 0.069605 -0.057702 -0.010946 -0.035958 0.039027 0.367287 0.044901 0.128941 -0.039109 -0.088411 -0.210587 -0.195746 -0.265087 0.117322 0.057173 -0.134257 -0.214258 -0.247163 -0.274339 0.054974 -0.111022 -0.567581 0.212942 -0.222993 -0.027288 0.198594 -0.052249 0.149065 -0.242251 -0.194625 -0.040973 -0.007490 0.168107 -0.079271 0.263272 -0.370942 0.190593 0.015323 0.115155 0.074836 0.307684 0.204195 -0.105276 0.298403 0.151988 0.045363 -0.128028 -0.065257 -0.150151 0.138840 -0.075110 0.019008 -0.181566 -0.044517 0.208922 0.067851 0.059112 -0.029587 -0.138191 -0.009103 -0.083886 -0.252082 -0.224802 0.450786 0.100208 -0.050416 0.050791 0.095502 -0.180603 0.003119 0.176932 0.367467 -0.042056 -0.330716 -0.165911 0.194028
有 0.193527 -0.147848 -0.216889 0.345840 0.167840 0.077381 -0.008271 0.086339 0.221482 0.238906 0.143423 0.243447 -0.096703 -0.003722 -0.135677 -0.121377 0.010825 -0.195820 -0.039212 -0.238165 -0.051397 0.061751 -0.011509 0.038362 0.070650 0.033089 -0.204374 0.058774 0.114010 -0.009768 0.019659 0.062417 -0.174101 0.126254 -0.432744 -0.156378 0.052458 0.125257 -0.388939 0.069865 0.187773 -0.004288 0.475281 0.353765 -0.122206 0.226154 -0.268776 -0.446217 -0.065467 -0.118917 -0.294591 -0.192187 -0.390997 0.195808 0.230505 -0.081404 0.115846 0.003057 0.090625 0.186092 -0.056296 0.335652 0.082503 -0.167190 0.035242 0.025190 -0.059429 0.210702 -0.167879 -0.040131 -0.229138 -0.109364 0.172920 0.088959 -0.176697 0.343278 0.145999 0.154341 -0.132280 -0.133544 -0.054391 0.218543 -0.014213 0.147761 0.218853 -0.073853 -0.024370 0.043339 -0.342652 -0.074920 0.059256 0.027434 -0.013542 -0.130538 0.204821 0.174387 0.172619 -0.098244 -0.134930 0.147733 -0.161286 0.497633 -0.049757 -0.013583 -0.308725 0.014092 0.049633 -0.513116 0.152826 0.066975 0.015450 -0.150230 0.182188 -0.215322 -0.022703 -0.015453 -0.375220 -0.162446 -0.026662 -0.050483 0.126628 -0.336465 0.000120 0.461875 0.130959 0.175786 -0.037611 0.188004 0.033869 0.149700 -0.126054 -0.134078 0.396584 -0.113067 -0.413782 0.019947 -0.227297 -0.194167 -0.142479 -0.215759 -0.338515 -0.352531 -0.306111 -0.061289 0.011045 -0.101890 0.085560 -0.102551 -0.045749 -0.049009 -0.093439 0.041288 -0.036300 -0.065175 -0.201354 -0.090002 0.343076 -0.040611 0.365802 -0.162164 0.393155 -0.009450 -0.086723 0.188582 0.368289 0.171773 -0.251415 0.188197 -0.122036 0.139621 0.067662 -0.155448 0.017550 0.112781 0.218069 -0.068295 -0.369653 0.116830 0.206730 -0.038797 -0.059644 0.015309 -0.206915 -0.085942 0.294301 -0.162627 0.094153 0.122246 0.001931 -0.110674 0.059908 0.137000 -0.032711 -0.031056 0.301763 0.203719 0.137252 -0.197206 -0.106715 0.044652
就 0.484062 -0.254062 0.117897 0.073744 0.176913 -0.025085 -0.108077 -0.041517 0.110389 0.022765 -0.128085 -0.133114 -0.100897 -0.227074 0.083103 -0.116274 -0.192863 -0.361043 -0.166347 -0.389477 -0.124933 0.027512 -0.046674 0.178063 0.209497 -0.209733 -0.157555 0.124745 0.250645 -0.318714 0.069681 0.171270 -0.015867 0.205610 -0.238911 -0.158581 0.194928 0.106788 -0.429328 0.108111 0.081431 0.229258 0.561157 0.154994 -0.120193 0.270526 -0.154745 -0.503762 -0.107812 -0.041260 -0.317614 -0.044995 -0.329272 0.147975 0.022334 0.022208 0.069256 0.099588 0.246299 -0.030863 0.037036 0.170639 -0.029094 -0.076297 -0.052169 -0.029847 0.054433 -0.120393 -0.141158 -0.209798 -0.201060 0.075133 0.109950 0.119138 -0.057518 0.118565 0.100716 0.164237 0.249238 0.148533 -0.060609 0.387972 0.109247 0.272171 0.125751 -0.208799 -0.132284 0.116165 -0.362249 -0.138416 0.357879 0.107960 0.063195 -0.097806 -0.116598 0.173013 0.162335 -0.175781 -0.124802 0.088283 0.033515 0.146537 0.070041 0.075269 -0.240446 0.093529 0.017559 -0.485399 0.021817 0.126479 -0.116306 -0.011733 0.065827 -0.093984 0.105387 -0.190101 -0.094173 -0.214251 0.017180 -0.141605 0.066387 -0.254103 -0.084618 -0.059771 0.051321 0.244476 -0.046645 -0.084229 -0.176307 0.118387 -0.183250 0.030955 0.066539 -0.113042 -0.193496 0.141978 -0.258033 0.137071 0.021973 0.135359 -0.313980 -0.362721 -0.261608 0.128114 -0.029706 -0.350472 0.271298 -0.016355 -0.073576 0.001857 -0.204943 -0.051785 -0.178418 -0.112081 0.083706 -0.017032 0.167915 0.043395 0.047859 -0.238265 0.359107 0.107304 -0.158097 0.271516 0.105996 0.081253 -0.153124 0.336119 0.107029 0.011100 -0.115878 -0.039139 -0.057622 0.165640 0.015819 -0.167292 -0.056794 -0.090182 -0.017977 0.013477 -0.196331 -0.069796 0.008270 0.082086 -0.069718 -0.246653 -0.206929 0.314188 -0.155977 0.078146 0.210645 0.068786 -0.135524 -0.005897 0.119347 0.285146 0.180187 -0.325743 -0.148104 0.018470
也 0.164303 -0.295481 0.054535 0.271378 0.170113 -0.008169 0.054988 0.010471 0.013570 0.168768 0.001725 -0.044618 -0.045339 -0.031910 -0.046233 -0.136203 -0.072286 -0.036954 -0.048421 -0.121568 -0.051672 -0.052684 -0.048101 0.075964 0.071385 0.122202 0.032486 0.193368 0.263642 -0.105038 -0.111256 0.103486 -0.039732 0.193689 -0.299205 -0.141847 0.179976 0.163290 -0.482221 0.089464 0.076726 -0.061930 0.507631 0.155925 -0.049503 0.083837 -0.156314 -0.575840 -0.134241 -0.178689 -0.276786 -0.030801 -0.338366 0.080954 0.017382 0.023794 0.136665 0.075277 0.271604 0.066796 0.035221 0.317462 0.223767 -0.141849 -0.107336 -0.018079 -0.022082 0.091009 0.045070 -0.084494 -0.225505 -0.082723 0.071191 0.060434 -0.035462 0.135783 -0.058303 0.208934 0.185894 0.083329 0.021948 0.263595 0.085149 0.327663 0.160312 -0.138441 -0.222704 -0.005235 -0.237156 -0.172541 0.159004 -0.060292 -0.129829 -0.230585 0.050804 0.073329 0.107548 -0.179672 -0.105526 -0.051694 -0.088714 0.291867 0.052064 0.028725 -0.384205 0.250241 -0.060119 -0.146869 0.098112 0.020969 -0.134297 -0.176571 0.110087 -0.014560 0.018050 -0.240871 0.012144 -0.281390 -0.185023 -0.090123 0.095053 -0.179737 -0.035992 0.191300 0.203226 0.101071 -0.098835 -0.014228 -0.023016 0.047385 -0.178397 0.127791 0.282007 -0.119828 -0.299480 0.018240 -0.188822 0.113180 0.002338 0.168488 -0.370566 -0.241365 -0.318565 0.058028 -0.097332 -0.241817 0.291455 0.068788 -0.130307 0.176384 -0.045578 -0.211730 -0.322820 -0.097197 -0.116501 -0.092721 0.185746 -0.021586 0.203219 -0.209287 0.454864 -0.071923 0.003231 0.341757 0.103996 0.064512 -0.265692 0.361700 -0.068113 0.220653 -0.149241 -0.060696 -0.144938 0.198757 -0.055615 -0.216227 0.136595 -0.107650 0.063468 0.012958 -0.024661 -0.011700 -0.092068 0.285138 0.037551 -0.212728 -0.017687 0.496595 -0.270493 -0.010513 0.255447 -0.006636 0.030243 -0.135156 0.257123 0.183453 0.102078 -0.252764 -0.359795 -0.012438
. 0.152968 -0.511123 -0.154984 0.145291 0.229029 -0.096814 0.259616 0.177022 0.203881 0.281827 0.220472 0.239591 0.004356 -0.070024 -0.018467 -0.089020 0.105021 -0.142781 -0.307653 0.095036 0.167400 -0.104063 -0.048004 0.425017 0.322662 -0.073061 0.122836 0.116061 0.277840 -0.049911 -0.113173 0.321747 0.145967 0.377164 0.174047 0.058043 0.374282 0.149913 0.001721 -0.717658 -0.176805 -0.145971 0.490260 0.337565 0.325799 -0.160071 -0.022841 -0.382353 -0.167090 -0.045587 -0.365421 0.184289 -0.309146 -0.039863 0.414860 -0.128577 0.070668 0.253489 0.312360 -0.239417 0.151608 0.156229 -0.160240 -0.204033 -0.212843 -0.192013 -0.180489 0.124990 -0.076778 0.052126 0.022467 0.195517 0.027601 0.402863 0.158066 0.188816 0.267311 0.104539 0.165390 0.137659 -0.066719 0.367191 -0.181193 0.097046 0.088156 -0.154338 0.100817 0.186770 -0.597640 -0.310758 0.256991 0.250201 -0.016945 -0.273837 0.057656 0.195151 -0.413666 -0.159631 -0.025283 0.268481 -0.599395 0.441037 0.018418 0.171547 -0.234459 0.073577 0.131151 -0.293917 -0.014782 -0.081042 -0.271427 0.161253 -0.112756 -0.453706 -0.002559 -0.309170 -0.132519 -0.167861 -0.338543 -0.337752 0.514967 -0.539779 -0.089220 -0.005693 0.159988 0.267562 -0.238569 0.176572 0.337579 0.154270 0.022334 0.326148 0.150982 0.334382 -0.354045 -0.234024 -0.046616 0.085124 -0.220660 -0.056573 -0.436793 -0.241737 -0.111806 0.030618 -0.275488 -0.398164 -0.166863 0.048706 -0.189234 0.104884 0.027200 -0.269384 -0.000029 -0.226471 -0.153174 0.114948 -0.140353 -0.171743 0.320895 -0.092180 0.573797 0.236979 -0.156557 0.311933 -0.300072 0.231342 -0.395862 0.206401 0.276143 -0.173633 -0.216395 0.081076 0.038938 0.190020 -0.113813 0.076042 -0.302868 -0.443476 0.221075 0.200059 0.158714 -0.396207 -0.009972 0.302689 0.113991 -0.013951 -0.015703 0.338158 0.061917 0.077592 0.300753 0.261275 0.028649 -0.285373 0.303295 0.319109 0.321401 -0.373795 -0.052675 0.385098